{
  "architecture": "trainable_candidate_multihead_transformer_world_model",
  "feature_count": 59,
  "state_dict": {
    "input_norm.weight": [
      0.9884924292564392,
      1.0087801218032837,
      0.9792908430099487,
      0.9752662181854248,
      1.0052461624145508,
      0.987986147403717,
      1.0335283279418945,
      1.0140751600265503,
      1.005081057548523,
      1.0119879245758057,
      1.0377169847488403,
      1.01287841796875,
      1.0078660249710083,
      1.008029818534851,
      1.0117648839950562,
      0.9991106390953064,
      1.0150856971740723,
      0.9923731684684753,
      1.0177668333053589,
      1.0293554067611694,
      0.9647409915924072,
      1.0083955526351929,
      1.0129084587097168,
      0.9925922751426697,
      0.9867015480995178,
      0.9786967039108276,
      0.9572100639343262,
      0.9940280318260193,
      1.0184324979782104,
      1.0148916244506836,
      0.9854985475540161,
      0.9768099188804626,
      0.979845404624939,
      0.9926876425743103,
      0.9856773614883423,
      0.9916673898696899,
      1.0036487579345703,
      0.991273820400238,
      1.0024187564849854,
      0.9858264923095703,
      1.019272804260254,
      0.9919804930686951,
      0.9877270460128784,
      0.9935517311096191,
      1.0103510618209839,
      0.9907936453819275,
      1.021464467048645,
      0.9833666682243347,
      1.0067659616470337,
      0.9970641136169434,
      1.0249829292297363,
      0.997974693775177,
      0.9799947738647461,
      1.0110576152801514,
      0.9816696643829346,
      1.0115058422088623,
      1.0114624500274658,
      1.0194835662841797,
      1.0203663110733032
    ],
    "projection.weight": [
      [
        0.09539266675710678,
        0.1036243885755539,
        -0.02324809692800045,
        0.11379542946815491,
        -0.058962542563676834,
        0.015927629545331,
        -0.08819025009870529,
        0.06597933918237686,
        0.10712236166000366,
        -0.11734368652105331,
        0.1173371970653534,
        0.004445863887667656,
        0.0720965787768364,
        0.028168320655822754,
        0.07418271154165268,
        -0.046811316162347794,
        0.08423420041799545,
        0.017656918615102768,
        -0.09559590369462967,
        0.05019848793745041,
        -0.05665329471230507,
        0.0007275565876625478,
        -0.060379087924957275,
        0.06507601588964462,
        -0.08384592086076736,
        -0.051979854702949524,
        -0.03972073644399643,
        -0.062297921627759933,
        0.036889031529426575,
        -0.14448203146457672,
        0.10215062648057938,
        -0.10023585706949234,
        0.06850354373455048,
        0.04014001414179802,
        -0.05079571157693863,
        0.08303682506084442,
        0.008368657901883125,
        0.10885138809680939,
        -0.011555873788893223,
        -0.014098524115979671,
        0.02588794380426407,
        -0.018227465450763702,
        0.0830196663737297,
        0.09198128432035446,
        0.0822794958949089,
        -0.035088006407022476,
        0.0772751122713089,
        0.0077931578271090984,
        0.07058420032262802,
        -0.06903862953186035,
        -0.11332502961158752,
        -0.06908758729696274,
        -0.09294557571411133,
        0.10988560318946838,
        0.015339981764554977,
        0.0726708173751831,
        0.05313679203391075,
        -0.020805925130844116,
        0.08678285032510757
      ],
      [
        -0.10539673268795013,
        -0.0005158246494829655,
        -0.07896823436021805,
        0.05442667752504349,
        -0.02564016357064247,
        0.025044243782758713,
        -0.03277767822146416,
        0.10732240974903107,
        -0.0966789573431015,
        -0.08309297263622284,
        -0.09702432155609131,
        0.10652272403240204,
        0.0349828340113163,
        0.09141615778207779,
        -0.13029982149600983,
        -0.10742991417646408,
        -0.09109184890985489,
        -0.08696551620960236,
        0.05681938678026199,
        0.05229488015174866,
        0.11750243604183197,
        -0.06578624993562698,
        -0.08436580002307892,
        0.05936934053897858,
        -0.0626865103840828,
        0.0928417444229126,
        -0.037146590650081635,
        0.0801520049571991,
        -0.10320982336997986,
        -0.0654221847653389,
        0.03146195039153099,
        0.03682088479399681,
        -0.04442998021841049,
        0.08097900450229645,
        0.08608119189739227,
        -0.09831522405147552,
        -0.04592244699597359,
        0.10868047177791595,
        -0.06078723445534706,
        -0.03440098091959953,
        -0.1221483051776886,
        -0.0710107684135437,
        0.04261938855051994,
        -0.03178483247756958,
        -0.10232360661029816,
        0.010241050273180008,
        -0.09935199469327927,
        -0.10786237567663193,
        -0.050431158393621445,
        -0.09521880000829697,
        -0.08293600380420685,
        0.1191432997584343,
        0.026721732690930367,
        0.056708306074142456,
        -0.12742918729782104,
        -0.08282452076673508,
        -0.020460357889533043,
        0.005327951163053513,
        -0.13467063009738922
      ],
      [
        -0.06271301209926605,
        -0.0827183797955513,
        -0.005376402288675308,
        -0.057185277342796326,
        -0.01993745192885399,
        -0.07979869097471237,
        -0.044819269329309464,
        -0.05938786268234253,
        -0.04601603001356125,
        -0.11677930504083633,
        0.14741913974285126,
        -0.019162379205226898,
        0.11111569404602051,
        0.048062779009342194,
        -0.10956098884344101,
        0.11903063952922821,
        -0.01923046074807644,
        -0.05717189237475395,
        -0.1129959374666214,
        -0.15161795914173126,
        0.04783564805984497,
        -0.04019029438495636,
        0.03354920446872711,
        -0.10833005607128143,
        0.07949915528297424,
        -0.09885907173156738,
        -0.005429862532764673,
        0.02455890364944935,
        0.07697257399559021,
        0.08961442112922668,
        0.12648703157901764,
        -0.1048610731959343,
        0.035423945635557175,
        -0.07064054161310196,
        -0.007486481219530106,
        -0.10285983234643936,
        0.10463403910398483,
        -0.09100443124771118,
        0.07795951515436172,
        0.04119451344013214,
        0.03396886959671974,
        -0.08253379911184311,
        0.1037227213382721,
        0.034500833600759506,
        0.023895593360066414,
        -0.11981920152902603,
        0.06700789928436279,
        -0.02801320143043995,
        -0.06525146216154099,
        0.10060380399227142,
        0.04276842623949051,
        -0.05707501992583275,
        -0.07199350744485855,
        9.629165288060904e-05,
        0.0781032145023346,
        -0.03589634597301483,
        -0.08094228059053421,
        -0.02579732984304428,
        -0.09195411205291748
      ],
      [
        0.03241027519106865,
        0.09060963243246078,
        -0.11217439919710159,
        0.02137450873851776,
        0.053166020661592484,
        0.009001104161143303,
        -0.0531037375330925,
        0.060089364647865295,
        0.04302983358502388,
        0.049141641706228256,
        -0.05767557770013809,
        -0.05167783051729202,
        -0.005933252163231373,
        -0.04156241565942764,
        -0.05049290880560875,
        0.06932742893695831,
        0.1062392070889473,
        -0.00480625731870532,
        -0.05159709230065346,
        0.025576036423444748,
        -0.016219820827245712,
        0.045974746346473694,
        0.04717233031988144,
        -0.12850435078144073,
        -0.049687787890434265,
        0.10488830506801605,
        0.059181347489356995,
        -0.006350425072014332,
        -0.06084613502025604,
        -0.08608681708574295,
        -0.11551354080438614,
        -0.046981897205114365,
        0.014629323035478592,
        0.09330834448337555,
        0.07513987272977829,
        -0.11482497304677963,
        -0.0720025897026062,
        -0.031182778999209404,
        0.10449480265378952,
        0.03193116933107376,
        -0.04463360458612442,
        0.06293817609548569,
        -0.042547471821308136,
        -0.09640190005302429,
        0.09216257184743881,
        -0.054277848452329636,
        -0.04420163482427597,
        -0.15009988844394684,
        0.09850368648767471,
        0.11042144149541855,
        0.0624004565179348,
        -0.1086912453174591,
        -0.11039313673973083,
        -0.08700146526098251,
        0.08669541776180267,
        0.08423780649900436,
        0.13101927936077118,
        0.060012318193912506,
        0.007499233819544315
      ],
      [
        0.0018837827956303954,
        -0.0937873050570488,
        -0.10384774208068848,
        -0.11873077601194382,
        0.05471818521618843,
        -0.0469675213098526,
        0.01193783525377512,
        -0.06075599044561386,
        -0.01843469962477684,
        -0.09456690400838852,
        -0.05849989876151085,
        0.05487554892897606,
        -0.03215868026018143,
        0.05960472300648689,
        -0.031837206333875656,
        -0.06681199371814728,
        -0.0026384724769741297,
        -0.0675400123000145,
        -0.04184471070766449,
        -0.15324141085147858,
        0.08431737124919891,
        -0.10227566957473755,
        0.04700988903641701,
        0.04927580803632736,
        0.0911121815443039,
        -0.07592140138149261,
        0.0923437774181366,
        -0.05977911129593849,
        0.05669483542442322,
        0.10760065913200378,
        -0.0234216321259737,
        -0.014764344319701195,
        -0.026345429942011833,
        -0.11376406997442245,
        0.05414162203669548,
        -0.12466926127672195,
        0.060122694820165634,
        0.10963357985019684,
        0.14134006202220917,
        -0.03296311944723129,
        -0.09226953238248825,
        0.0161391980946064,
        0.06680215150117874,
        -0.1325177103281021,
        -0.024240685626864433,
        -0.07829868793487549,
        0.013460857793688774,
        -0.06000882014632225,
        -0.0601409412920475,
        -0.061440836638212204,
        -0.09835244715213776,
        0.11926526576280594,
        0.08966275304555893,
        -0.02741726115345955,
        -0.0047165630385279655,
        -0.07181623578071594,
        -0.13317155838012695,
        -0.10253459960222244,
        0.06509404629468918
      ],
      [
        -0.06468824297189713,
        -0.07671555131673813,
        -0.003413161961361766,
        -0.057468365877866745,
        -0.050344567745923996,
        0.02195671759545803,
        -0.0007800378371030092,
        -0.028907038271427155,
        -0.059996675699949265,
        -0.11132911592721939,
        0.1302696019411087,
        -0.04086489975452423,
        0.03875976800918579,
        -0.03615957871079445,
        0.029927410185337067,
        0.12119542062282562,
        0.062224335968494415,
        -0.11623905599117279,
        0.014528265222907066,
        0.10312703996896744,
        0.05055471882224083,
        0.06633181869983673,
        0.12329311668872833,
        -0.018610090017318726,
        0.025705283507704735,
        -0.09960544854402542,
        -0.02048526704311371,
        0.09593585133552551,
        0.06385211646556854,
        -0.06219467893242836,
        -0.09741514176130295,
        -0.12422060966491699,
        -0.1359645277261734,
        -0.12439413368701935,
        -0.01960989274084568,
        0.09936022013425827,
        0.0024297935888171196,
        -0.09479827433824539,
        -0.07626562565565109,
        0.055491186678409576,
        -0.09960906207561493,
        -0.03896945342421532,
        0.060375530272722244,
        -0.04494281858205795,
        -0.032775770872831345,
        -0.008966909721493721,
        -0.003234147559851408,
        -0.05782192200422287,
        -0.14823025465011597,
        -0.12910369038581848,
        -0.07076142728328705,
        0.13347798585891724,
        -0.07378432899713516,
        -0.08877440541982651,
        0.01865009032189846,
        0.04950323700904846,
        0.05761418864130974,
        0.11056232452392578,
        0.08910827338695526
      ],
      [
        -0.12629766762256622,
        0.020005550235509872,
        0.0869574174284935,
        -0.011055068112909794,
        -0.08022791147232056,
        0.14256243407726288,
        -0.013260968029499054,
        -0.05537530034780502,
        -0.12279321998357773,
        -6.338756065815687e-06,
        0.08589489012956619,
        0.040612734854221344,
        0.025082120671868324,
        -0.09619104117155075,
        -0.11525323987007141,
        0.030639756470918655,
        0.13837261497974396,
        0.07522190362215042,
        -0.07650038599967957,
        -0.04740986227989197,
        -0.06826059520244598,
        -0.08388075977563858,
        0.017578158527612686,
        0.06683623790740967,
        0.10276346653699875,
        -0.11026198416948318,
        0.09924454987049103,
        -0.09623072296380997,
        0.046537380665540695,
        0.11746956408023834,
        0.0011482854606583714,
        0.11247877031564713,
        -0.11594533175230026,
        -0.06685706228017807,
        0.06431493163108826,
        -0.015034236945211887,
        -0.025805702432990074,
        -0.0604652538895607,
        0.0987555980682373,
        0.0578596368432045,
        0.049734290689229965,
        -0.09169074892997742,
        -0.10771823674440384,
        0.01268952339887619,
        0.016958149150013924,
        -0.07157807052135468,
        -0.01561078242957592,
        0.09050195664167404,
        0.005036279559135437,
        -0.0003433265956118703,
        -0.009651469998061657,
        -0.09910006076097488,
        -0.12627097964286804,
        -0.05409925431013107,
        -0.05960182100534439,
        0.01944795995950699,
        -0.045971114188432693,
        -0.036916688084602356,
        0.14280661940574646
      ],
      [
        0.04298432543873787,
        0.09578023105859756,
        -0.05862630903720856,
        -0.026815049350261688,
        0.06701959669589996,
        -0.07995592057704926,
        -0.08942340314388275,
        -0.019015159457921982,
        -0.04267627373337746,
        -0.0917484313249588,
        0.06311315298080444,
        0.10564041882753372,
        0.026695817708969116,
        -0.04616482928395271,
        -0.11148308217525482,
        -0.02692694403231144,
        0.04708714038133621,
        0.05900666117668152,
        -0.01384947169572115,
        -0.08907550573348999,
        0.08609811961650848,
        -0.10412464290857315,
        0.07122310250997543,
        -0.06436963379383087,
        0.0018957885913550854,
        -0.0222028736025095,
        -0.00513498205691576,
        -0.01933775469660759,
        0.08543912321329117,
        -0.01470089890062809,
        0.08339893072843552,
        0.10185207426548004,
        -0.07340414822101593,
        -0.09278272837400436,
        0.0813925489783287,
        0.11319858580827713,
        -0.11577805131673813,
        0.008051351644098759,
        -0.1106131300330162,
        -0.08825469762086868,
        0.061560288071632385,
        0.026148485019803047,
        0.04525778442621231,
        -0.0513942576944828,
        0.10934822261333466,
        0.04076492413878441,
        -0.05767929181456566,
        0.011666401289403439,
        0.029532836750149727,
        0.028007417917251587,
        -0.09961419552564621,
        0.036775462329387665,
        -0.09346471726894379,
        -0.12067236006259918,
        -0.07727667689323425,
        0.13139107823371887,
        0.09510018676519394,
        0.1274743229150772,
        0.07571670413017273
      ],
      [
        0.11099856346845627,
        -0.006576701067388058,
        -0.06994909793138504,
        0.04564011096954346,
        -0.08374688774347305,
        -0.07024380564689636,
        -0.02915741689503193,
        0.04072299599647522,
        0.044776108115911484,
        -0.04489608481526375,
        -0.07627180963754654,
        0.031142165884375572,
        -0.07594399899244308,
        -0.08837588131427765,
        0.058649301528930664,
        -0.01659829169511795,
        0.13141751289367676,
        0.13518770039081573,
        0.008458460681140423,
        0.0618111677467823,
        0.03595389425754547,
        -0.0006049236399121583,
        -0.01294394489377737,
        0.011422894895076752,
        0.05285589024424553,
        0.12700332701206207,
        -0.03644019365310669,
        -0.06428976356983185,
        -0.027206653729081154,
        -0.06121637299656868,
        0.025755364447832108,
        0.08295349031686783,
        0.11468131840229034,
        0.07360056787729263,
        -0.08060362190008163,
        -0.08090214431285858,
        -0.038892097771167755,
        -0.03117699734866619,
        0.018185896798968315,
        -0.1306171417236328,
        0.03728793188929558,
        -0.09583640098571777,
        -0.08136175572872162,
        -0.1071402058005333,
        0.12175986915826797,
        -0.13437026739120483,
        0.12194524705410004,
        0.004638118203729391,
        -0.020535020157694817,
        0.056849557906389236,
        0.004663541913032532,
        0.08386624604463577,
        0.09419941902160645,
        -0.11310407519340515,
        0.053442440927028656,
        0.016126621514558792,
        0.019554076716303825,
        0.027222882956266403,
        0.05000725015997887
      ],
      [
        -0.0559760220348835,
        -0.025802038609981537,
        0.10865745693445206,
        0.07484502345323563,
        -0.012299774214625359,
        -0.1195811927318573,
        0.00993394572287798,
        -0.07804287225008011,
        0.11019229143857956,
        -0.0503065399825573,
        -0.03126700967550278,
        -0.017555588856339455,
        0.026274416595697403,
        0.1355012208223343,
        0.013151680119335651,
        0.07359626889228821,
        0.10121693462133408,
        0.10947148501873016,
        -0.05154690146446228,
        -0.03625864163041115,
        0.06603866815567017,
        -0.03664841130375862,
        0.05339301750063896,
        -0.01767105981707573,
        -0.09249348193407059,
        0.054068244993686676,
        0.027131596580147743,
        0.04624843969941139,
        0.13163967430591583,
        0.09413047134876251,
        0.13925738632678986,
        -0.012037872336804867,
        -0.09849034249782562,
        -0.10470951348543167,
        -0.07031483948230743,
        -0.10478048771619797,
        -0.05531943216919899,
        -0.1230907067656517,
        -0.10961570590734482,
        -0.08805540949106216,
        -0.13506200909614563,
        -0.06838987022638321,
        0.03971806541085243,
        0.12673832476139069,
        -0.04278311878442764,
        -0.042657069861888885,
        0.07274875789880753,
        -0.0646296888589859,
        -0.08638204634189606,
        0.04717029258608818,
        -0.13981710374355316,
        0.020172083750367165,
        0.10338539630174637,
        0.0007227734895423055,
        0.042295489460229874,
        -0.06079602986574173,
        -0.009689785540103912,
        0.02559393271803856,
        0.03884747624397278
      ],
      [
        0.07292848825454712,
        0.13924692571163177,
        -0.0909416452050209,
        0.020405743271112442,
        -0.050757285207509995,
        -0.09310587495565414,
        -0.021207544952630997,
        -0.11279414594173431,
        0.1229834035038948,
        0.03639031574130058,
        -0.08048917353153229,
        0.08266310393810272,
        -0.09973099827766418,
        -0.04125925526022911,
        -0.002568132011219859,
        -0.09912668913602829,
        -0.07955514639616013,
        -0.030153919011354446,
        0.11667346209287643,
        0.13689330220222473,
        0.07223132252693176,
        -0.06672181934118271,
        -0.10607393831014633,
        0.11742537468671799,
        0.0375719852745533,
        -0.006457480136305094,
        0.004756350070238113,
        -0.09858270734548569,
        -0.06794890016317368,
        0.12152823805809021,
        -0.036895282566547394,
        -0.012883882969617844,
        -0.08779408037662506,
        -0.06904831528663635,
        -0.007526308298110962,
        -0.08816765993833542,
        -0.022915907204151154,
        0.05957384034991264,
        -0.11691486090421677,
        0.03410438820719719,
        -0.06153076887130737,
        -0.05572002753615379,
        0.04443676397204399,
        0.11189861595630646,
        -0.03469400852918625,
        -0.047515008598566055,
        -0.11789929121732712,
        -0.05372088775038719,
        -0.1362898349761963,
        -0.03931593522429466,
        0.008607428520917892,
        -0.12168733030557632,
        0.10692902654409409,
        0.05249905586242676,
        -0.11074443906545639,
        -0.059701431542634964,
        0.019346723333001137,
        -0.015441491268575191,
        0.0015168181853368878
      ],
      [
        -0.05960790440440178,
        0.10893308371305466,
        -0.04906608536839485,
        0.09247158467769623,
        -0.01032152771949768,
        0.03354788199067116,
        0.12025585770606995,
        -0.0136016346514225,
        -0.0836290791630745,
        -0.03545954450964928,
        0.1313025951385498,
        -0.09578213095664978,
        0.014566737227141857,
        -0.12597791850566864,
        0.07207176089286804,
        0.07348137348890305,
        0.021299710497260094,
        0.04594838619232178,
        -0.021947477012872696,
        0.07093841582536697,
        -0.1170470267534256,
        -0.004469064064323902,
        0.05897961184382439,
        0.1207047700881958,
        0.06519603729248047,
        -0.06990260630846024,
        0.0892823114991188,
        -0.038686852902173996,
        -0.0017402814701199532,
        -0.12918412685394287,
        -0.030351033434271812,
        0.08716539293527603,
        0.017674658447504044,
        -0.03973991796374321,
        0.040954772382974625,
        -0.04583395645022392,
        0.08754124492406845,
        -0.09637448936700821,
        -0.05140523612499237,
        -0.1285056322813034,
        -0.04320448637008667,
        0.042785920202732086,
        0.13128525018692017,
        0.016602864488959312,
        0.1573057323694229,
        0.01695895753800869,
        0.11099155992269516,
        0.09466356784105301,
        0.1035718098282814,
        -0.09709613025188446,
        0.16882193088531494,
        0.06775537878274918,
        -0.07769579440355301,
        -0.0570455864071846,
        -0.10175316780805588,
        0.0245061032474041,
        -0.11467713862657547,
        0.07450448721647263,
        0.054832201451063156
      ],
      [
        -0.10703688114881516,
        0.04395202547311783,
        -0.005694094114005566,
        0.028681952506303787,
        0.051710017025470734,
        -0.11235608905553818,
        0.1411217749118805,
        0.12543897330760956,
        0.04327263683080673,
        -0.1264188587665558,
        -0.017920995131134987,
        -0.02100849151611328,
        -0.020633427426218987,
        0.059726543724536896,
        0.04501193389296532,
        0.1292957216501236,
        -0.02985752373933792,
        0.03164427727460861,
        0.03585437312722206,
        -0.14130713045597076,
        -0.11267922818660736,
        -0.08894559741020203,
        0.089931920170784,
        -0.11966070532798767,
        -0.09794872999191284,
        0.10188538581132889,
        0.06111864000558853,
        0.09470457583665848,
        -0.11077015846967697,
        -0.08999252319335938,
        0.06501905620098114,
        0.11105488985776901,
        0.08896514028310776,
        0.0159956943243742,
        0.030299481004476547,
        0.11763382703065872,
        -0.08782511949539185,
        -0.04589509963989258,
        0.10420551151037216,
        -0.10305407643318176,
        -0.06154089421033859,
        0.06957285851240158,
        0.03500427305698395,
        0.04557334631681442,
        -0.03362001106142998,
        -0.011962494812905788,
        0.13307493925094604,
        -0.06675490736961365,
        5.0302787713008e-05,
        0.05205772817134857,
        -0.06540795415639877,
        0.14026394486427307,
        -0.0801185593008995,
        -0.01663558930158615,
        -0.023557232692837715,
        -0.10922613739967346,
        -0.14261211454868317,
        0.07474301755428314,
        0.05501732602715492
      ],
      [
        -0.12343882024288177,
        -0.08564140647649765,
        0.1262129545211792,
        0.02066062204539776,
        0.01718001440167427,
        -0.08961713314056396,
        -0.08685111999511719,
        -0.02262457273900509,
        -0.011087455786764622,
        -0.0817049965262413,
        -0.004680811893194914,
        0.0033821568358689547,
        -0.027313625440001488,
        0.027256524190306664,
        -0.060269348323345184,
        0.019204938784241676,
        0.04544784128665924,
        -0.0606846883893013,
        -0.12835507094860077,
        0.09239799529314041,
        0.0004928617854602635,
        -0.049858592450618744,
        0.14387711882591248,
        -0.04505643993616104,
        0.07750578969717026,
        0.060158621519804,
        -0.09114907681941986,
        0.06638652831315994,
        -0.12022116035223007,
        -0.07389164716005325,
        -0.0037759235128760338,
        -0.07146760821342468,
        0.12944845855236053,
        -0.004883452318608761,
        0.06657684594392776,
        -0.10657055675983429,
        0.09815293550491333,
        -0.05908844992518425,
        -0.12817701697349548,
        0.0043457807041704655,
        0.0482771210372448,
        0.1353921741247177,
        -0.09189733862876892,
        -0.05311466380953789,
        0.041133951395750046,
        0.017083147540688515,
        0.023418260738253593,
        0.053487230092287064,
        -0.02422540821135044,
        0.09478441625833511,
        0.09425988048315048,
        -0.04575881361961365,
        0.10942795872688293,
        0.08853904157876968,
        0.12076002359390259,
        -0.06230096518993378,
        -0.05839356780052185,
        -0.048844389617443085,
        -0.007190288510173559
      ],
      [
        0.08160904794931412,
        -0.07382939010858536,
        0.05521007999777794,
        -0.03039998933672905,
        0.08750473707914352,
        -0.016113614663481712,
        -0.14935694634914398,
        -0.0891939252614975,
        -0.07412874698638916,
        0.07482687383890152,
        -0.12195109575986862,
        -0.017933012917637825,
        0.033871281892061234,
        -0.05814715474843979,
        0.04259815439581871,
        -0.1684238314628601,
        -0.10990401357412338,
        -0.11477885395288467,
        -0.02003619819879532,
        -0.02542758174240589,
        -0.005577892065048218,
        -0.0014166072942316532,
        0.07580702006816864,
        0.12676969170570374,
        0.06371046602725983,
        -0.07522020488977432,
        -0.11885712295770645,
        0.05153758451342583,
        -0.07694973051548004,
        0.07449685782194138,
        0.09747111797332764,
        0.07071910053491592,
        0.13158459961414337,
        0.12736858427524567,
        0.020421957597136497,
        -0.09347911924123764,
        0.12901362776756287,
        -0.06512648612260818,
        -0.08281505107879639,
        0.10679861158132553,
        0.09875623136758804,
        0.054152872413396835,
        0.0027171503752470016,
        -0.10022988170385361,
        -0.014877695590257645,
        0.1272963583469391,
        0.0018037671688944101,
        -0.0016619224334135652,
        -0.024552367627620697,
        -0.032586827874183655,
        0.041545867919921875,
        0.007939169183373451,
        0.10952511429786682,
        -0.04478125274181366,
        0.05585319548845291,
        0.06309659034013748,
        0.022799763828516006,
        0.08307475596666336,
        0.07715632021427155
      ],
      [
        0.11283071339130402,
        0.09214545041322708,
        -0.04120682552456856,
        -0.08573491126298904,
        0.04328245669603348,
        -0.0211714468896389,
        -0.07602421194314957,
        -0.036030832678079605,
        -0.005082988180220127,
        0.09935709834098816,
        0.0068447170779109,
        -0.059051092714071274,
        -0.052845198661088943,
        -0.03124445118010044,
        -0.06563867628574371,
        0.0955495685338974,
        0.058355897665023804,
        0.12251559644937515,
        0.02216041088104248,
        0.04565237835049629,
        0.03153610602021217,
        -0.11322237551212311,
        0.0308245699852705,
        -0.015492326579988003,
        -0.05933747440576553,
        -0.08231408894062042,
        0.09973295778036118,
        0.1215195581316948,
        0.05213804543018341,
        0.1283160001039505,
        -0.06112833693623543,
        0.0013579060323536396,
        0.04490146413445473,
        -0.019321830943226814,
        -0.04324309527873993,
        -0.10863833874464035,
        0.0592816062271595,
        -0.06636133044958115,
        -0.027042396366596222,
        0.1410977840423584,
        -0.04975825920701027,
        -0.01939871720969677,
        0.0926750898361206,
        -0.057274229824543,
        0.0006344399298541248,
        0.13110102713108063,
        -0.09314434230327606,
        -0.09547393769025803,
        -0.054994430392980576,
        -0.004683217033743858,
        -0.09406902641057968,
        -0.08193507045507431,
        0.07086579501628876,
        0.026397643610835075,
        -0.04981347545981407,
        -0.09502016007900238,
        -0.024108098819851875,
        -0.08567527681589127,
        -0.06227680295705795
      ],
      [
        -0.12032487988471985,
        0.018257303163409233,
        -0.09478079527616501,
        -0.11594783514738083,
        -0.11923430860042572,
        0.04976726695895195,
        -0.06576072424650192,
        -0.05746206268668175,
        0.09696664661169052,
        0.06492742151021957,
        0.05677799880504608,
        -0.13132303953170776,
        -0.10205139219760895,
        -0.033158447593450546,
        0.10637645423412323,
        -0.0008925569709390402,
        -0.10633799433708191,
        0.0005813218303956091,
        -0.11328237503767014,
        -0.002907305955886841,
        -0.040542054921388626,
        0.1312747448682785,
        0.027353869751095772,
        -0.024861691519618034,
        0.02438892237842083,
        -0.03943469747900963,
        0.060741618275642395,
        0.04876502603292465,
        0.05955692380666733,
        -0.05948880314826965,
        0.11918064951896667,
        -0.016046931967139244,
        -0.05312155932188034,
        0.09596700966358185,
        0.12181691080331802,
        0.12181565910577774,
        0.029208065941929817,
        -0.043383847922086716,
        0.052918218076229095,
        0.11422593146562576,
        -0.14739678800106049,
        0.00018155857105739415,
        -0.09087581187486649,
        0.02422313764691353,
        0.06969545036554337,
        -0.026726193726062775,
        -0.01576104760169983,
        0.04439186677336693,
        -0.021138828247785568,
        -0.11097130179405212,
        0.11225160956382751,
        -0.07482548803091049,
        -0.007778073661029339,
        0.0025554851163178682,
        -0.009961551986634731,
        -0.11500586569309235,
        0.0678912103176117,
        -0.04980796203017235,
        -0.07958006858825684
      ],
      [
        0.016301505267620087,
        -0.08026238530874252,
        -0.04663916304707527,
        -0.047228824347257614,
        -0.07126910239458084,
        -0.06428949534893036,
        -0.03881854936480522,
        0.03555317595601082,
        -0.1200864240527153,
        -0.10723087191581726,
        0.022719481959939003,
        0.0023374143056571484,
        0.04727271571755409,
        -0.05220120772719383,
        0.043164800852537155,
        0.06443513929843903,
        0.07382681220769882,
        -0.12119358032941818,
        -0.05954853072762489,
        -0.13182896375656128,
        -0.07068832218647003,
        0.042965032160282135,
        -0.0016893697902560234,
        0.0382949560880661,
        -0.06684429943561554,
        0.048306602984666824,
        -0.06934300810098648,
        0.05896543711423874,
        -0.048370979726314545,
        -0.022493384778499603,
        -0.1187240332365036,
        0.02025681920349598,
        0.10038602352142334,
        0.05137690156698227,
        -0.07811293751001358,
        0.013768510892987251,
        -0.0008934648358263075,
        -0.10192686319351196,
        0.09606710076332092,
        0.004803446587175131,
        0.013111144304275513,
        -0.06481578201055527,
        -0.054163508117198944,
        0.00707159424200654,
        0.042028725147247314,
        0.01052772905677557,
        -0.07132957875728607,
        0.12256846576929092,
        -0.021138055250048637,
        -0.060903843492269516,
        -0.02956795133650303,
        0.1333879977464676,
        0.008883289992809296,
        0.011224064975976944,
        -0.06865864247083664,
        -0.04288298636674881,
        -0.09778754413127899,
        -0.12161964923143387,
        0.07442145049571991
      ],
      [
        0.09128285199403763,
        0.1010456383228302,
        -0.1008930504322052,
        0.074588842689991,
        -0.07876061648130417,
        0.058794040232896805,
        0.08065121620893478,
        0.08574553579092026,
        0.07229084521532059,
        0.05273069441318512,
        -0.013619370758533478,
        0.03955903649330139,
        -0.07649858295917511,
        0.03197012469172478,
        -0.05816090852022171,
        -0.0027971346862614155,
        -0.12482617795467377,
        -0.04302116483449936,
        -0.08481603860855103,
        -0.03390524163842201,
        -0.06690289825201035,
        -0.12800341844558716,
        0.015938859432935715,
        0.08145146071910858,
        0.10712768137454987,
        0.09261010587215424,
        -0.0710335373878479,
        -0.13532772660255432,
        0.06674428284168243,
        0.0868724137544632,
        -0.11523866653442383,
        0.0699630081653595,
        0.09087014943361282,
        0.0009061592863872647,
        -0.07930759340524673,
        0.09652720391750336,
        0.08551923930644989,
        0.08699247986078262,
        -0.10625604540109634,
        0.08298149704933167,
        -0.09240616112947464,
        0.13264460861682892,
        -0.049932412803173065,
        0.07167413830757141,
        0.027289893478155136,
        0.03376779705286026,
        -0.0282017532736063,
        0.057071033865213394,
        -0.0336800292134285,
        -0.11968433856964111,
        -0.056960441172122955,
        0.0966704860329628,
        -0.03329536318778992,
        0.04405710846185684,
        -0.07307034730911255,
        0.10369651019573212,
        0.10406354069709778,
        0.03187697008252144,
        -0.08272836357355118
      ],
      [
        -0.09884443134069443,
        0.009882763028144836,
        -0.07200903445482254,
        0.07286594808101654,
        -0.1529996395111084,
        0.0693303793668747,
        0.15842244029045105,
        0.08106133341789246,
        0.03048478066921234,
        -0.1302265077829361,
        0.15169456601142883,
        -0.015123330987989902,
        -0.1370316445827484,
        0.13132941722869873,
        -0.06797882169485092,
        -0.002669920679181814,
        0.1085645854473114,
        -0.10676249116659164,
        -0.13004089891910553,
        0.033071476966142654,
        -0.02684234268963337,
        0.036434754729270935,
        -0.11813567578792572,
        0.00986419152468443,
        -0.06083044409751892,
        -0.07033427059650421,
        -0.11879381537437439,
        0.05802340433001518,
        0.03809913247823715,
        -0.10487760603427887,
        0.10589886456727982,
        0.024304615333676338,
        0.028727814555168152,
        -0.060264039784669876,
        0.04915288835763931,
        0.11163438856601715,
        0.07971516251564026,
        -0.10877060890197754,
        0.12302551418542862,
        0.001555433962494135,
        0.04439390450716019,
        0.10596773028373718,
        0.11026357859373093,
        -0.09359864890575409,
        0.12047699838876724,
        -0.09110281616449356,
        0.02629762701690197,
        -0.09883155673742294,
        -0.036369651556015015,
        -0.036285147070884705,
        0.005014497321099043,
        -0.026837283745408058,
        0.007984014227986336,
        0.13460233807563782,
        0.07377339154481888,
        0.08254315704107285,
        0.0512503944337368,
        0.11038315296173096,
        -0.006239853333681822
      ],
      [
        -0.0005917245871387422,
        0.015035766176879406,
        -0.10299897193908691,
        -0.08932516723871231,
        0.03167633339762688,
        -0.07558489590883255,
        -0.001670984085649252,
        -0.03814049810171127,
        0.017685571685433388,
        0.06837192922830582,
        -0.055914506316185,
        0.08590015769004822,
        0.06868106871843338,
        -0.14347462356090546,
        -0.11067018657922745,
        -0.08241217583417892,
        -0.0866888090968132,
        -0.08882887661457062,
        -0.009073619730770588,
        -0.02237900346517563,
        -0.04769356548786163,
        -0.028698107227683067,
        -0.042499493807554245,
        0.1161225289106369,
        -0.0482122041285038,
        -0.06724051386117935,
        0.031129784882068634,
        -0.0040550846606493,
        0.11010661721229553,
        0.08427702635526657,
        0.10328418761491776,
        -0.07741910219192505,
        0.06807208061218262,
        0.132352814078331,
        -0.07854661345481873,
        0.09739162027835846,
        0.09871276468038559,
        0.019151397049427032,
        0.04945199936628342,
        -0.025801708921790123,
        -0.10796389728784561,
        0.036774892359972,
        0.05467865988612175,
        -0.09514807909727097,
        0.08419576287269592,
        -0.10457677394151688,
        0.1162901297211647,
        0.1346600204706192,
        0.0729159265756607,
        -0.08040738850831985,
        0.06579554080963135,
        -0.0012668221024796367,
        0.01903695799410343,
        0.041372641921043396,
        0.07468566298484802,
        -0.03817841783165932,
        0.00557685038074851,
        0.018285125494003296,
        -0.009396965615451336
      ],
      [
        0.10350862145423889,
        -0.062490951269865036,
        -0.006848749704658985,
        0.0282281581312418,
        -0.019341280683875084,
        0.08980489522218704,
        0.029919560998678207,
        -0.11495091021060944,
        -0.029123028740286827,
        -0.06277437508106232,
        0.02725999429821968,
        -0.008502351120114326,
        -0.13501718640327454,
        -0.040369853377342224,
        -0.02583148516714573,
        -0.011187664233148098,
        0.12675388157367706,
        -0.042938556522130966,
        0.08504152297973633,
        -0.002719308715313673,
        -0.12065649777650833,
        0.01978185959160328,
        0.12073841691017151,
        -0.08225283771753311,
        -0.06802038103342056,
        0.12762166559696198,
        0.09793999791145325,
        -0.07102930545806885,
        0.05405547469854355,
        -0.024598313495516777,
        -0.12795700132846832,
        0.00783227663487196,
        0.03531791269779205,
        -0.0413467213511467,
        0.03584979474544525,
        -0.10332638025283813,
        0.0934167355298996,
        0.12136254459619522,
        0.07394244521856308,
        0.019708964973688126,
        0.061762403696775436,
        -0.11476846039295197,
        -0.03686005622148514,
        -0.015817025676369667,
        -0.062265682965517044,
        -0.10059964656829834,
        0.08457274734973907,
        0.09796848893165588,
        -0.10596222430467606,
        0.05520263686776161,
        0.05676646530628204,
        0.1232142373919487,
        0.0635608434677124,
        0.13774850964546204,
        -0.032613664865493774,
        0.09207139909267426,
        0.10088035464286804,
        -0.12602576613426208,
        -0.10254469513893127
      ],
      [
        0.030312564224004745,
        0.07565633207559586,
        -0.05202481895685196,
        0.0009610672714188695,
        -0.023581134155392647,
        0.04689650237560272,
        -0.03768332302570343,
        0.08392893522977829,
        0.09355709701776505,
        -0.09319280087947845,
        0.007429501507431269,
        0.007970546372234821,
        0.043403808027505875,
        0.1318182498216629,
        0.053931087255477905,
        -0.02629539556801319,
        0.12889482080936432,
        -0.04275808483362198,
        -0.048120271414518356,
        -0.0037584397941827774,
        -0.0865989401936531,
        -0.004970158450305462,
        -0.09209256619215012,
        0.015276385471224785,
        -0.001810344634577632,
        0.04224736988544464,
        -0.0913970023393631,
        -0.14695359766483307,
        0.06865055859088898,
        0.1063925251364708,
        -0.10504741966724396,
        0.04888433218002319,
        -0.08598054200410843,
        -0.0036478464026004076,
        0.12463624775409698,
        0.11275316029787064,
        -0.10552240163087845,
        0.07871011644601822,
        0.0761823058128357,
        -0.01688006892800331,
        0.12526266276836395,
        -0.0632002055644989,
        -0.04004849120974541,
        -0.057490117847919464,
        0.026011889800429344,
        0.012743581086397171,
        0.020341496914625168,
        -0.07149017602205276,
        -0.07145966589450836,
        0.029723018407821655,
        -0.080567367374897,
        -0.0009774768259376287,
        -0.004465893376618624,
        -0.05518525093793869,
        0.055385392159223557,
        -0.011849010363221169,
        0.07322520762681961,
        0.0006818378460593522,
        -0.06445629149675369
      ],
      [
        0.08434560149908066,
        0.0009904864709824324,
        -0.06262349337339401,
        -0.07504186034202576,
        0.0390947200357914,
        -0.1408056765794754,
        0.00292266346514225,
        0.049071621149778366,
        -0.12069026380777359,
        -0.08511460572481155,
        -0.12451638281345367,
        0.09570411592721939,
        0.11166704446077347,
        0.0322238989174366,
        0.11833351105451584,
        -0.0739341676235199,
        -0.1339629590511322,
        0.06078416854143143,
        0.05572087690234184,
        0.1475878208875656,
        -0.00787887629121542,
        0.119699627161026,
        0.06745943427085876,
        0.08983316272497177,
        -0.12612222135066986,
        0.08257251977920532,
        -0.11190910637378693,
        0.1362210065126419,
        0.0004077156481798738,
        -0.13776163756847382,
        0.03397931903600693,
        -0.017807818949222565,
        -0.11219771951436996,
        -0.04941001534461975,
        0.022767283022403717,
        0.09624821692705154,
        -0.02902725711464882,
        0.07950655370950699,
        0.000367345055565238,
        0.014849581755697727,
        0.017014801502227783,
        -0.059027574956417084,
        -0.10441575199365616,
        -0.047895438969135284,
        -0.11834415048360825,
        -0.04843525588512421,
        -0.02666809968650341,
        -0.09807833284139633,
        -0.043140579015016556,
        -0.004743667785078287,
        -0.04833843186497688,
        -0.08462019264698029,
        0.007679537869989872,
        -0.028189603239297867,
        0.031221218407154083,
        0.024289323017001152,
        -0.05555708706378937,
        -0.055046044290065765,
        -0.019095733761787415
      ],
      [
        -0.07092126458883286,
        0.020135046914219856,
        0.001875476911664009,
        0.040722109377384186,
        0.02091524377465248,
        0.10327878594398499,
        -0.00794290006160736,
        -0.09391481429338455,
        0.040282998234033585,
        -0.08391975611448288,
        -0.03087708353996277,
        -0.042761772871017456,
        -0.0531453900039196,
        -0.04516229405999184,
        0.1122104823589325,
        0.08428265154361725,
        0.03195702284574509,
        0.11342108994722366,
        -0.14782212674617767,
        0.05091478303074837,
        0.06658667325973511,
        0.10460563004016876,
        -0.1162567287683487,
        0.045576442033052444,
        -0.07827101647853851,
        -0.013462251983582973,
        -0.018278729170560837,
        -0.10896576195955276,
        -0.11231784522533417,
        -0.10084079205989838,
        0.06456992775201797,
        0.060261745005846024,
        -0.11950432509183884,
        -0.043448954820632935,
        0.019793348386883736,
        -0.11784154921770096,
        0.06674353033304214,
        0.11437074840068817,
        0.005520917940884829,
        -0.09543745964765549,
        0.01923559047281742,
        0.05846791714429855,
        0.10050741583108902,
        -0.07117456197738647,
        -0.10165515542030334,
        0.0632387325167656,
        0.0023462644312530756,
        -0.057366129010915756,
        -0.05523589998483658,
        -0.06820814311504364,
        0.11483018845319748,
        -0.028506537899374962,
        0.1023004874587059,
        0.12301424890756607,
        0.023316632956266403,
        0.04326864331960678,
        -0.00194433587603271,
        0.088795006275177,
        -0.1339825689792633
      ],
      [
        0.045858874917030334,
        -0.02370809018611908,
        0.05856649950146675,
        0.023337479680776596,
        -0.010182330384850502,
        -0.022597020491957664,
        0.06582224369049072,
        -0.09147606790065765,
        -0.09095850586891174,
        -0.0189930722117424,
        -0.05655486881732941,
        0.0447755865752697,
        0.08323442935943604,
        -0.006536166649311781,
        0.11938490718603134,
        -0.060362160205841064,
        -0.059868037700653076,
        -0.044501304626464844,
        -0.058140724897384644,
        -0.0976102277636528,
        -0.12777455151081085,
        -0.12279494106769562,
        0.05450134724378586,
        0.07317852228879929,
        0.13507989048957825,
        0.12502510845661163,
        -0.011527522467076778,
        0.038918592035770416,
        -0.09038715064525604,
        0.04488435387611389,
        -0.132457435131073,
        0.07517288625240326,
        0.015977367758750916,
        0.03723136708140373,
        0.026117995381355286,
        -0.0396101251244545,
        0.1262965202331543,
        0.06359030306339264,
        0.06601441651582718,
        0.028006985783576965,
        0.0898333340883255,
        0.09147152304649353,
        0.07544291764497757,
        0.08506077527999878,
        -0.042332328855991364,
        0.08719617128372192,
        0.002609550254419446,
        0.07777751237154007,
        0.1515003740787506,
        0.06563477218151093,
        -0.05742410570383072,
        -0.01937044970691204,
        0.04292133450508118,
        0.02243371494114399,
        -0.0331340990960598,
        0.10002157092094421,
        0.075325146317482,
        -0.0986027643084526,
        -0.023458285257220268
      ],
      [
        -0.013121807016432285,
        -0.08234438300132751,
        0.03646409511566162,
        -0.06799881905317307,
        -0.09978105127811432,
        -0.03325634077191353,
        -0.024903805926442146,
        0.14552773535251617,
        0.03506811708211899,
        0.11683899164199829,
        0.07288368791341782,
        0.039181552827358246,
        0.04787488281726837,
        0.03783806040883064,
        -0.09522023797035217,
        -0.05447567626833916,
        -0.019371140748262405,
        0.01001653727144003,
        0.03305242210626602,
        0.026421647518873215,
        0.11338110268115997,
        0.008012649603188038,
        -0.05348041653633118,
        -0.09818196296691895,
        -0.1088881865143776,
        -0.05734981968998909,
        0.04654863849282265,
        0.05652992054820061,
        0.13404887914657593,
        -0.05171767249703407,
        -0.0053848400712013245,
        -0.052523575723171234,
        0.005264960695058107,
        0.03694341704249382,
        0.003981259185820818,
        0.007928574457764626,
        -0.0025808096397668123,
        0.06650487333536148,
        -0.028467237949371338,
        -0.09380654245615005,
        0.029495641589164734,
        -0.018612096086144447,
        -0.06833916157484055,
        0.05984783545136452,
        0.01178128831088543,
        -0.03510894253849983,
        -0.043317753821611404,
        -0.007859904319047928,
        -0.13330507278442383,
        0.004102633334696293,
        0.04239761084318161,
        0.08471560478210449,
        -0.012669886462390423,
        0.01637393794953823,
        0.046232473105192184,
        0.0922156497836113,
        -0.07114391773939133,
        0.09282642602920532,
        0.04516152665019035
      ],
      [
        -0.08217355608940125,
        0.05902351066470146,
        -0.07229778915643692,
        -0.031554799526929855,
        -0.05326927825808525,
        -0.08603844791650772,
        0.0882466584444046,
        -0.1244010478258133,
        0.07214522361755371,
        -0.09462273120880127,
        -0.02490375190973282,
        0.0101206935942173,
        0.10360364615917206,
        -0.034880559891462326,
        0.039274733513593674,
        0.004704240709543228,
        0.07703359425067902,
        0.021397756412625313,
        0.061443351209163666,
        -0.07029414176940918,
        -0.09830035269260406,
        0.11333887279033661,
        -0.07554851472377777,
        -0.02026696503162384,
        -0.007385879289358854,
        0.13009990751743317,
        -0.030067699030041695,
        -0.09676509350538254,
        -0.036366868764162064,
        0.07794298231601715,
        0.05161302164196968,
        0.10782647877931595,
        -0.02211877889931202,
        0.0510503388941288,
        -0.12604312598705292,
        0.0529821440577507,
        0.06419449299573898,
        0.08362056314945221,
        -0.06315014511346817,
        -0.037551164627075195,
        0.03576754778623581,
        -0.09996098279953003,
        -0.10455960035324097,
        -0.12058396637439728,
        0.0073638372123241425,
        0.08279615640640259,
        0.02019997127354145,
        0.01848509907722473,
        0.03935344144701958,
        -0.0723082572221756,
        0.0017928932793438435,
        -0.028856052085757256,
        -0.05041469633579254,
        0.10952402651309967,
        -0.0995645821094513,
        0.004937392193824053,
        -0.12541994452476501,
        -0.008814468048512936,
        -0.05336641147732735
      ],
      [
        0.04325861111283302,
        -0.06535554677248001,
        0.105190210044384,
        -0.11796748638153076,
        0.07267922908067703,
        -0.0946120098233223,
        0.07952874153852463,
        -0.04404681921005249,
        -0.024773402139544487,
        -0.025006745010614395,
        0.08613704144954681,
        0.04310372471809387,
        -0.12536419928073883,
        0.026557480916380882,
        -0.09172595292329788,
        0.13214276731014252,
        0.04476242512464523,
        -0.029472731053829193,
        -0.08753979206085205,
        0.04923565685749054,
        -0.09784562140703201,
        0.06387771666049957,
        0.07723783701658249,
        0.0767020583152771,
        0.013765149749815464,
        -0.1034889668226242,
        0.07819563895463943,
        -0.03609232231974602,
        -0.04238583892583847,
        -0.023159202188253403,
        0.08150883764028549,
        0.07667147368192673,
        0.017128387466073036,
        0.08436040580272675,
        -0.1142231673002243,
        0.0024433613289147615,
        -0.13538643717765808,
        0.04345698282122612,
        -0.09011747688055038,
        -0.046385299414396286,
        0.10791662335395813,
        0.13594594597816467,
        -0.06294238567352295,
        -0.081850565969944,
        0.022004621103405952,
        0.05041421577334404,
        0.007554691284894943,
        -0.03168460354208946,
        -0.10076949000358582,
        0.0410689152777195,
        0.16582755744457245,
        -0.08138854801654816,
        0.04342891275882721,
        0.08052229136228561,
        0.11594684422016144,
        -0.007807285524904728,
        -0.0021190999541431665,
        0.09700099378824234,
        0.0815584734082222
      ],
      [
        0.133421391248703,
        -0.030749410390853882,
        0.03488074615597725,
        0.10841532051563263,
        -0.06653105467557907,
        0.019403351470828056,
        -0.04998086020350456,
        0.08926163613796234,
        -0.03845726326107979,
        0.01690566912293434,
        0.0735892802476883,
        -0.12264809012413025,
        -0.10457320511341095,
        -0.07110514491796494,
        0.08835993707180023,
        0.05787154287099838,
        -0.11431436985731125,
        0.02449220046401024,
        -0.040082287043333054,
        -0.04480276256799698,
        0.12689287960529327,
        0.036711692810058594,
        -0.02616259641945362,
        0.030576182529330254,
        0.01384623721241951,
        0.01923307031393051,
        -0.033487044274806976,
        -0.08461521565914154,
        0.07135331630706787,
        0.04143577069044113,
        0.06656584143638611,
        -0.03358035534620285,
        0.0635443851351738,
        0.06614013761281967,
        0.07411157339811325,
        0.04028450325131416,
        0.16689419746398926,
        -0.008833750151097775,
        0.011130230501294136,
        0.12274102866649628,
        0.10940422862768173,
        -0.05029379948973656,
        0.1156093180179596,
        0.05994744971394539,
        -0.030266204848885536,
        0.10048507899045944,
        -0.09420803189277649,
        0.08235221356153488,
        0.13269811868667603,
        -0.07133588194847107,
        -0.11445792764425278,
        -0.11758708208799362,
        0.0018641928909346461,
        -0.1435028314590454,
        -0.0575895681977272,
        0.03896393999457359,
        0.11161099374294281,
        0.0471024326980114,
        0.07285922020673752
      ],
      [
        0.0322829969227314,
        -0.09960994869470596,
        -0.10786948353052139,
        0.0036339673679322004,
        0.1088629961013794,
        -0.015780946239829063,
        -0.03359771892428398,
        -0.11195221543312073,
        -0.06167265772819519,
        -0.12307394295930862,
        0.09030731767416,
        -0.04317338019609451,
        -0.13908956944942474,
        0.017311109229922295,
        5.421179230324924e-05,
        -0.0325162447988987,
        0.02462797798216343,
        0.05586510896682739,
        -0.12061033397912979,
        -0.09209530055522919,
        0.0014635355910286307,
        -0.10714740306138992,
        -0.10364904254674911,
        0.10276780277490616,
        -0.02204553224146366,
        -0.054216790944337845,
        -0.04766891896724701,
        -0.10199162364006042,
        0.12815944850444794,
        -0.01575513184070587,
        -0.08067408949136734,
        -0.08767277747392654,
        0.04668407887220383,
        -0.009298461489379406,
        -0.008693903684616089,
        -0.03344143182039261,
        -0.06765606254339218,
        0.03321968764066696,
        0.09500093758106232,
        -0.05633142217993736,
        -0.015913555398583412,
        -0.08614058047533035,
        -0.053217507898807526,
        0.10485554486513138,
        0.0068428777158260345,
        0.13929300010204315,
        -0.030735014006495476,
        -0.08224726468324661,
        -0.06719306856393814,
        0.12235648185014725,
        -0.10357334464788437,
        0.05431058257818222,
        0.03651724010705948,
        0.053147658705711365,
        0.05022436007857323,
        -0.009670010767877102,
        0.10851535201072693,
        -0.11945019662380219,
        -0.06437371671199799
      ],
      [
        0.09972406178712845,
        0.04633544012904167,
        0.01400513481348753,
        -0.03958602249622345,
        -0.0921396017074585,
        0.08066461980342865,
        -0.00587031664326787,
        -0.006774145178496838,
        0.03283195197582245,
        0.10858394205570221,
        -0.06990301609039307,
        -0.03859199956059456,
        0.08831297606229782,
        0.06187222898006439,
        -0.0469738245010376,
        -0.11621982604265213,
        0.038631509989500046,
        0.08305162191390991,
        0.03089825063943863,
        0.08318240195512772,
        -0.09232305735349655,
        0.05335928872227669,
        -0.0821550115942955,
        0.06489919871091843,
        0.0990791767835617,
        0.07319632172584534,
        0.08749343454837799,
        -0.08490405231714249,
        -0.11826478689908981,
        -0.11623012274503708,
        0.06898771226406097,
        0.027881791815161705,
        -0.10790784657001495,
        0.06496024876832962,
        0.10096093267202377,
        -0.11069287359714508,
        0.0788077563047409,
        0.04399145022034645,
        0.029522428289055824,
        0.11930476874113083,
        0.13719752430915833,
        0.04060286283493042,
        0.117362841963768,
        0.04786546155810356,
        0.01685761660337448,
        -0.11282090097665787,
        0.046287063509225845,
        -0.06927565485239029,
        0.02295144833624363,
        -0.0016379266744479537,
        0.02090335264801979,
        -0.09732726216316223,
        -0.10149302333593369,
        0.09575061500072479,
        0.06444048881530762,
        0.06178928166627884,
        -0.04650983214378357,
        -0.015102013945579529,
        -0.023654278367757797
      ],
      [
        0.08927418291568756,
        -0.03816394507884979,
        0.11576186865568161,
        0.1110222265124321,
        -0.10658584535121918,
        0.001438606414012611,
        -0.014402423985302448,
        -0.06606002897024155,
        0.04399310424923897,
        -0.020941095426678658,
        0.13892917335033417,
        -0.07524780184030533,
        0.04841308668255806,
        -0.10120858252048492,
        -0.070452481508255,
        0.05208408087491989,
        0.1090882197022438,
        0.038548536598682404,
        -0.13493387401103973,
        -0.005490299314260483,
        -0.07821091264486313,
        -0.003920922055840492,
        -0.10207781940698624,
        -0.05470600351691246,
        0.07647384703159332,
        -0.1291794627904892,
        -0.1300923079252243,
        0.03868797793984413,
        0.0006422755541279912,
        -0.03547092527151108,
        0.10689441114664078,
        -0.09186959266662598,
        -0.08682356029748917,
        -0.1210295781493187,
        -0.038909196853637695,
        -0.021098323166370392,
        0.0451228991150856,
        0.008546351455152035,
        0.055254578590393066,
        -0.058744799345731735,
        0.121419757604599,
        0.07241777330636978,
        -0.11978913843631744,
        -0.03614646941423416,
        -0.11296491324901581,
        0.056309036910533905,
        -0.09766127169132233,
        -0.05480051413178444,
        0.11935482174158096,
        -0.11578238010406494,
        0.12487415224313736,
        0.016676029190421104,
        0.08496826142072678,
        -0.035530935972929,
        0.10464820265769958,
        0.026181763038039207,
        0.009903601370751858,
        0.09668394923210144,
        -0.12294579297304153
      ],
      [
        -0.09183793514966965,
        0.1297132521867752,
        -0.08674486726522446,
        -0.09869574755430222,
        -0.004933539312332869,
        -0.03340030461549759,
        -0.03938071057200432,
        -0.08812651038169861,
        0.03520993888378143,
        -0.10535740107297897,
        -0.015389451757073402,
        0.07818064093589783,
        0.025813931599259377,
        0.020547695457935333,
        0.016546104103326797,
        -0.05491720139980316,
        -0.027898846194148064,
        -0.021175896748900414,
        -0.10751635581254959,
        -0.03964664041996002,
        0.11289079487323761,
        -0.00581243634223938,
        0.028544742614030838,
        0.09632917493581772,
        -0.012949003838002682,
        -0.10057228803634644,
        -0.07150410860776901,
        -0.05066574737429619,
        0.06776505708694458,
        -0.12889474630355835,
        -0.0053428057581186295,
        0.043319813907146454,
        0.11124089360237122,
        0.05425373837351799,
        0.05402284488081932,
        0.080004021525383,
        0.06105417013168335,
        0.029295017942786217,
        -0.061718884855508804,
        -0.10961762815713882,
        -0.03295112028717995,
        0.0019518499029800296,
        0.006913312245160341,
        -0.013715583831071854,
        0.0675259679555893,
        0.08093538135290146,
        -0.06055353581905365,
        -0.14156676828861237,
        -0.07960757613182068,
        -0.0715937465429306,
        0.08256007730960846,
        -0.09341361373662949,
        -0.0036600218154489994,
        -0.037327010184526443,
        -0.06505685299634933,
        0.07079251110553741,
        -0.056086063385009766,
        0.009505372494459152,
        -0.09796951711177826
      ],
      [
        -0.02545337565243244,
        0.010686815716326237,
        -0.014002725481987,
        -0.0544305182993412,
        0.026746511459350586,
        -0.04819221422076225,
        -0.09154822677373886,
        -0.08902528882026672,
        -0.0574062280356884,
        -0.13961030542850494,
        0.10774356871843338,
        -0.07923383265733719,
        -0.07782971858978271,
        0.02920995093882084,
        0.010622645728290081,
        -0.02460560016334057,
        0.09311328828334808,
        -0.06585851311683655,
        0.04370333254337311,
        0.030871722847223282,
        -0.10111882537603378,
        -0.0390140637755394,
        0.03852149471640587,
        0.018594251945614815,
        0.09606638550758362,
        0.07420679181814194,
        -0.05203748866915703,
        -0.06316456943750381,
        -0.012240598909556866,
        -0.09041772037744522,
        -0.0292399600148201,
        -0.08006666600704193,
        0.032615065574645996,
        0.08639737963676453,
        0.02067234180867672,
        -0.10698001831769943,
        -0.0674705058336258,
        -0.08393602073192596,
        0.004665582440793514,
        0.009509079158306122,
        -0.017322968691587448,
        0.1360282003879547,
        0.054794155061244965,
        0.02023513987660408,
        -0.025917842984199524,
        0.04650653898715973,
        0.03338872268795967,
        -0.13992775976657867,
        -0.0511467382311821,
        0.03344475477933884,
        0.04512584209442139,
        0.06878060102462769,
        -0.04533514380455017,
        -0.12108566612005234,
        -0.01651616021990776,
        -0.011754728853702545,
        0.07703997194766998,
        -0.046014949679374695,
        0.08361122012138367
      ],
      [
        0.021255705505609512,
        0.10534258186817169,
        -0.08818499743938446,
        0.04434561729431152,
        0.002587098628282547,
        -0.05150391906499863,
        0.06451306492090225,
        -0.12390848994255066,
        0.12134125828742981,
        0.012379669584333897,
        0.023359257727861404,
        0.07385855913162231,
        0.029510335996747017,
        0.053242720663547516,
        0.097428098320961,
        -0.09790581464767456,
        0.09230921417474747,
        -0.018309704959392548,
        -0.03867935389280319,
        0.003693527076393366,
        0.10624503344297409,
        -0.09475120157003403,
        -0.0915394127368927,
        0.09378037601709366,
        -0.06841707229614258,
        0.02655387483537197,
        -0.011405130848288536,
        0.031822655349969864,
        0.08175821602344513,
        -0.06802032142877579,
        -0.05224941298365593,
        0.05056530609726906,
        0.029151994735002518,
        -0.029628220945596695,
        -0.11450507491827011,
        0.11523519456386566,
        -0.020801527425646782,
        -0.014131679199635983,
        -0.027663523331284523,
        -0.04446979612112045,
        0.08384846150875092,
        -0.019661307334899902,
        0.09608341008424759,
        0.0076712965965271,
        -0.02501598186790943,
        0.06353641301393509,
        0.007401301059871912,
        -0.010715522803366184,
        0.030321607366204262,
        0.08649803698062897,
        0.03305700793862343,
        0.1103397011756897,
        0.07158292084932327,
        0.03107527270913124,
        0.054652754217386246,
        0.030942505225539207,
        -0.010788528248667717,
        0.12021136283874512,
        0.14083102345466614
      ],
      [
        0.05986807122826576,
        0.009021983481943607,
        0.12845969200134277,
        -0.11508849263191223,
        0.0818105936050415,
        0.08522214740514755,
        0.09576470404863358,
        2.9132264899089932e-05,
        -0.1004519835114479,
        0.10102210193872452,
        -0.03637149557471275,
        0.05070774629712105,
        0.07601005584001541,
        -0.12666438519954681,
        0.011926468461751938,
        -0.022534452378749847,
        0.10527832806110382,
        -0.09125716239213943,
        0.04453270137310028,
        0.06050911545753479,
        0.0770534947514534,
        0.1094471737742424,
        0.034046441316604614,
        -0.10787320882081985,
        0.09873978793621063,
        0.0068665072321891785,
        0.014072244986891747,
        -0.13760975003242493,
        -0.03324034437537193,
        -0.05228618159890175,
        0.1420021504163742,
        0.07131838798522949,
        0.10202427208423615,
        0.07893771678209305,
        -0.08394010365009308,
        -0.04068254679441452,
        -0.061715420335531235,
        -0.05246391519904137,
        0.12403789907693863,
        0.027010701596736908,
        0.11684676259756088,
        -0.03349068760871887,
        -0.1289893090724945,
        -0.025817103683948517,
        0.0845133513212204,
        0.0680183693766594,
        0.06095987185835838,
        -0.027896810322999954,
        -0.1509227454662323,
        -0.08675554394721985,
        0.07189588993787766,
        -0.03961578384041786,
        0.053002189844846725,
        0.05846593528985977,
        -0.0282742939889431,
        0.07217288762331009,
        -0.06554443389177322,
        0.014033800922334194,
        -0.03165612369775772
      ],
      [
        -0.12763018906116486,
        0.008054505102336407,
        0.020710771903395653,
        -0.04658791050314903,
        0.09867925196886063,
        -0.12293334305286407,
        -0.15465441346168518,
        -0.09083241969347,
        -0.07012671232223511,
        -0.0011935292277485132,
        -0.05976611748337746,
        0.05383170396089554,
        -0.11580908298492432,
        0.012359706684947014,
        -0.006232116837054491,
        0.007526177912950516,
        0.14024974405765533,
        0.11923321336507797,
        -0.06760303676128387,
        -0.09494970738887787,
        -0.022606829181313515,
        -0.05694014951586723,
        0.045569393783807755,
        -0.0014101132983341813,
        0.11895031481981277,
        0.03500155732035637,
        -0.025264080613851547,
        0.030553247779607773,
        0.04017295688390732,
        -0.02567181922495365,
        0.10326310247182846,
        -0.10520164668560028,
        0.05414951965212822,
        -0.08617964386940002,
        -0.10942524671554565,
        -0.02231321856379509,
        0.0903271734714508,
        0.08218442648649216,
        0.014868224039673805,
        0.002941704588010907,
        0.010807248763740063,
        -0.02196529507637024,
        0.0037678112275898457,
        -0.02594757080078125,
        0.08822306990623474,
        0.0930740088224411,
        -0.13027217984199524,
        -0.002304279711097479,
        -0.07709238678216934,
        -0.011956053785979748,
        -0.13518202304840088,
        0.01548076793551445,
        -0.0800662562251091,
        0.11356359720230103,
        0.09010052680969238,
        -0.07626361399888992,
        -0.12589770555496216,
        0.00245985621586442,
        -0.0577954538166523
      ],
      [
        0.02568827196955681,
        -0.09822723269462585,
        0.0499488040804863,
        -0.08943100273609161,
        -0.03530111163854599,
        -0.07496529817581177,
        0.062035057693719864,
        -0.013170831836760044,
        -0.14283712208271027,
        -0.08468358218669891,
        -0.08994492143392563,
        -0.1337955892086029,
        0.009921718388795853,
        0.07685846090316772,
        -0.03722275421023369,
        -0.0606331042945385,
        -0.003456063335761428,
        -0.0903211236000061,
        -0.07600144296884537,
        0.009702751412987709,
        0.09172211587429047,
        -0.02750249393284321,
        0.07738768309354782,
        -0.05914701893925667,
        -0.03814428672194481,
        -0.11376025527715683,
        0.09657145291566849,
        0.13996462523937225,
        0.004652686882764101,
        0.09093005210161209,
        0.09639323502779007,
        0.06599752604961395,
        0.06301619857549667,
        -0.12195127457380295,
        -0.11986086517572403,
        -0.1038578599691391,
        0.02723093330860138,
        -0.11601372063159943,
        -0.09963046759366989,
        -0.0562569685280323,
        -0.1364603191614151,
        0.015930576249957085,
        0.02794531360268593,
        -0.07792991399765015,
        0.06929848343133926,
        -0.0359688326716423,
        -0.04913382977247238,
        0.10673291981220245,
        0.1069464236497879,
        -0.006856210064142942,
        -0.0984099730849266,
        -0.07812169194221497,
        0.02406502701342106,
        0.0798373594880104,
        0.06026587262749672,
        -0.03823446109890938,
        -0.11104930937290192,
        -0.12694738805294037,
        -0.05263924226164818
      ],
      [
        0.0037666235584765673,
        -0.06136040389537811,
        -0.1115131676197052,
        0.03278881683945656,
        -0.09724728763103485,
        -0.11419908702373505,
        -0.13735292851924896,
        -0.0540621317923069,
        0.1255226582288742,
        0.06267432868480682,
        -0.04608892276883125,
        0.016903487965464592,
        0.057966239750385284,
        0.015020784921944141,
        -0.09549856185913086,
        -0.10054758191108704,
        -0.10922112315893173,
        5.599233554676175e-05,
        -0.09865354746580124,
        0.0006801264826208353,
        -0.04631882160902023,
        0.1517816185951233,
        0.09675206243991852,
        0.07736630737781525,
        0.005051810294389725,
        -0.06296784430742264,
        0.04102341830730438,
        -0.08628817647695541,
        -0.04093681275844574,
        -0.03001609444618225,
        -0.022910183295607567,
        -0.11136125028133392,
        0.04613642394542694,
        0.09891105443239212,
        -0.07181675732135773,
        0.027740735560655594,
        -0.004172669257968664,
        -0.00998780783265829,
        -0.013007227331399918,
        0.12135784327983856,
        0.010457227937877178,
        -0.05992531403899193,
        -0.05096512660384178,
        0.07127109169960022,
        0.04499280825257301,
        0.011047686450183392,
        -0.042386047542095184,
        -0.06663934141397476,
        -0.04355733469128609,
        -0.05384092032909393,
        -0.005642442032694817,
        0.038049403578042984,
        0.11233692616224289,
        -0.05127240717411041,
        0.00856103003025055,
        0.094686359167099,
        0.06280546635389328,
        0.018964983522892,
        0.022650478407740593
      ],
      [
        -0.0008556991233490407,
        -0.1222667321562767,
        0.007351233158260584,
        -0.020190071314573288,
        0.12126506865024567,
        0.09865139424800873,
        0.01205778680741787,
        0.10757843405008316,
        -0.08319231122732162,
        0.10259521007537842,
        0.09467633813619614,
        -0.0239288080483675,
        -0.1350603550672531,
        -0.05609709396958351,
        -0.051376309245824814,
        0.003700191155076027,
        -0.13351109623908997,
        0.001444560126401484,
        -0.09714947640895844,
        -0.001551898312754929,
        -0.06593091040849686,
        -0.0005153432721272111,
        -0.13362230360507965,
        -0.0868382602930069,
        -0.01348034106194973,
        0.0785486027598381,
        0.09595558047294617,
        -0.08820067346096039,
        0.08586139976978302,
        -0.07797080278396606,
        -0.11685077100992203,
        -0.014933181926608086,
        -0.09596382081508636,
        -0.08665595203638077,
        -0.09323546290397644,
        -0.11742506176233292,
        0.09618821740150452,
        0.06658337265253067,
        -0.05782872810959816,
        -0.06403934955596924,
        -0.11538761854171753,
        -0.054142020642757416,
        -0.04119010269641876,
        0.06609850376844406,
        0.057205669581890106,
        -0.022631049156188965,
        0.0958513468503952,
        -0.08907067775726318,
        -0.1050267294049263,
        0.018935231491923332,
        -0.07629735767841339,
        0.0066419439390301704,
        0.11130128055810928,
        -0.06030707433819771,
        -0.10942589491605759,
        0.08122564107179642,
        -0.09682334959506989,
        0.10646454989910126,
        -0.08792537450790405
      ],
      [
        0.06671489775180817,
        -0.11020655930042267,
        -0.10097476840019226,
        -0.009201696142554283,
        0.02452121302485466,
        0.10101474821567535,
        0.11027312278747559,
        -0.015234174206852913,
        -0.017473874613642693,
        0.013563898392021656,
        -0.03570079430937767,
        -0.0034237345680594444,
        -0.12465120106935501,
        -0.13299782574176788,
        0.08878031373023987,
        -0.09566012769937515,
        0.08195260912179947,
        0.009824042208492756,
        0.007014128379523754,
        0.1532239317893982,
        -0.06886197626590729,
        0.002116080140694976,
        0.00109391612932086,
        0.04694947972893715,
        -0.10891173779964447,
        0.040681254118680954,
        -0.05648079887032509,
        0.013177389279007912,
        0.11419396847486496,
        -0.023579705506563187,
        0.012777552008628845,
        0.003815488191321492,
        0.09711019694805145,
        0.08501514792442322,
        0.03734559193253517,
        -0.08699154853820801,
        -0.05828297510743141,
        0.10966693609952927,
        0.061606526374816895,
        0.08242004364728928,
        -0.12032830715179443,
        0.11451475322246552,
        -0.020817609503865242,
        0.09225746244192123,
        0.12861225008964539,
        0.020599588751792908,
        -0.07136626541614532,
        0.09701400995254517,
        -0.0539465993642807,
        0.08653275668621063,
        -0.13072994351387024,
        -0.04926285147666931,
        -0.09783636033535004,
        -0.07035563886165619,
        0.04240390285849571,
        -0.08115509152412415,
        -0.10123417526483536,
        0.09952685236930847,
        0.05426856130361557
      ],
      [
        0.005327332299202681,
        -0.08283314108848572,
        -0.03970571234822273,
        -0.028785739094018936,
        0.09695550054311752,
        -0.030547507107257843,
        -0.030288271605968475,
        -0.07756644487380981,
        -0.06584013998508453,
        0.08972220122814178,
        0.09153562039136887,
        0.03903741389513016,
        -0.0266594048589468,
        0.12433105707168579,
        0.022085577249526978,
        -0.03930191695690155,
        -0.0236591137945652,
        -0.016537951305508614,
        0.07671020925045013,
        0.02687443420290947,
        0.07867003977298737,
        -0.022004641592502594,
        0.11460386961698532,
        -0.042258117347955704,
        -0.03473498299717903,
        -0.045389458537101746,
        -0.11829397827386856,
        -0.07222693413496017,
        -0.15588201582431793,
        -0.026706116273999214,
        0.006173829082399607,
        -0.027306945994496346,
        -0.06817514449357986,
        0.10929319262504578,
        -0.06570786982774734,
        0.08051061630249023,
        0.08905930817127228,
        -0.06817381083965302,
        -0.013944233767688274,
        0.0647621676325798,
        0.1453513503074646,
        -0.030894838273525238,
        0.09289846569299698,
        -0.10799290984869003,
        -0.08083880692720413,
        0.09344428032636642,
        -0.022239292040467262,
        0.13756367564201355,
        0.015518947504460812,
        -0.028116630390286446,
        0.1275424063205719,
        0.12514075636863708,
        0.0025528708938509226,
        -0.06683807075023651,
        0.016079138964414597,
        -0.07763348519802094,
        0.07864569127559662,
        0.0022234097123146057,
        0.04383544251322746
      ],
      [
        0.06497746706008911,
        0.03372769430279732,
        -0.08614151179790497,
        0.11351948231458664,
        0.0823369026184082,
        -0.10227888077497482,
        0.08498725295066833,
        0.0209918525069952,
        -0.04015899449586868,
        -0.10551546514034271,
        -0.050714634358882904,
        -0.1495113968849182,
        0.05261053889989853,
        0.09707470238208771,
        -0.05968218296766281,
        0.1258286088705063,
        -0.05987313762307167,
        0.010251646861433983,
        -0.1104094460606575,
        0.03075646609067917,
        0.05409635975956917,
        0.06359773874282837,
        0.0017358303302899003,
        -0.06946218758821487,
        0.07627394050359726,
        0.07430096715688705,
        0.013801134191453457,
        -0.06066371873021126,
        0.03309224918484688,
        0.014296517707407475,
        0.11550500243902206,
        0.018881646916270256,
        -0.0023697016295045614,
        0.0027700006030499935,
        0.09258641302585602,
        -0.03662813454866409,
        0.1227823793888092,
        0.045498382300138474,
        -0.09430838376283646,
        0.01356123574078083,
        -0.138892263174057,
        -0.09256595373153687,
        0.029190057888627052,
        0.029334140941500664,
        -0.010257769376039505,
        0.1429796814918518,
        -0.07595932483673096,
        -0.04894600808620453,
        -0.0200001560151577,
        0.009904621168971062,
        -0.03038671799004078,
        0.10964997857809067,
        -0.03820104897022247,
        -0.05842871218919754,
        -0.0011599810095503926,
        0.12419251352548599,
        0.05844667926430702,
        0.048886362463235855,
        -0.0007930161664262414
      ],
      [
        0.12333802133798599,
        0.08677197992801666,
        0.09492688626050949,
        -0.009738544933497906,
        -0.09648513793945312,
        -0.05656466260552406,
        0.05339956283569336,
        0.12178496271371841,
        -0.05678252503275871,
        0.10772794485092163,
        0.03808301314711571,
        0.008943703025579453,
        0.00926324725151062,
        -0.036618512123823166,
        0.1275719255208969,
        0.017457788810133934,
        0.0766989067196846,
        -0.11309043318033218,
        -0.07704061269760132,
        0.04145141318440437,
        0.09571891278028488,
        0.07167080789804459,
        0.004212720785290003,
        -0.12515364587306976,
        -0.008588423952460289,
        -0.08212970197200775,
        -0.10258745402097702,
        0.0200838390737772,
        -0.07193298637866974,
        0.10641063004732132,
        -0.06747953593730927,
        0.047714073210954666,
        0.07940215617418289,
        -0.09335364401340485,
        0.06842754781246185,
        -0.028779223561286926,
        0.08138962090015411,
        0.1280270367860794,
        -0.08638142049312592,
        -0.052630968391895294,
        0.09748251736164093,
        0.034624502062797546,
        -0.015845218673348427,
        0.09362594783306122,
        -0.042967166751623154,
        -0.0035261011216789484,
        0.08485699445009232,
        0.032560430467128754,
        -0.08751273155212402,
        0.04227130487561226,
        -0.09637384116649628,
        -0.07866878062486649,
        0.08434564620256424,
        -0.04409699887037277,
        -0.05861009657382965,
        0.0059401956386864185,
        0.03710293024778366,
        -0.08692877739667892,
        -0.09768187999725342
      ],
      [
        -0.1465853601694107,
        0.01809755526483059,
        -0.10456468909978867,
        -0.003873148001730442,
        -0.027264177799224854,
        -0.09404878318309784,
        -0.051293592900037766,
        -0.10486983507871628,
        -0.09331058710813522,
        -0.0337376669049263,
        -0.11930334568023682,
        -0.12928445637226105,
        0.08545298129320145,
        0.02099495567381382,
        -0.07787532359361649,
        -0.0177963525056839,
        0.1041841208934784,
        -0.10543446242809296,
        -0.056124716997146606,
        -0.11241887509822845,
        -0.022944200783967972,
        -0.024603284895420074,
        -0.08344971388578415,
        0.09674753248691559,
        -0.11165694147348404,
        0.11001984775066376,
        -0.08562353253364563,
        -0.016450900584459305,
        -0.0021435453090816736,
        -0.04241173341870308,
        0.1185796856880188,
        -0.07900667190551758,
        -0.0018725258996710181,
        -0.11901421844959259,
        0.03875012695789337,
        0.10903260856866837,
        0.14929835498332977,
        -0.009879102930426598,
        -0.057256121188402176,
        0.11968164145946503,
        0.008038884028792381,
        0.08065122365951538,
        -0.07052160799503326,
        -0.05501783266663551,
        -0.12898240983486176,
        0.11437873542308807,
        0.004242578521370888,
        -0.0869433730840683,
        0.024334397166967392,
        -0.044577836990356445,
        -0.01011413149535656,
        0.05054952949285507,
        -0.051906947046518326,
        0.032920245081186295,
        -0.09946960210800171,
        0.026266014203429222,
        -0.11324040591716766,
        0.00873109232634306,
        0.12130933254957199
      ],
      [
        0.12326646596193314,
        0.03813634067773819,
        0.08165647834539413,
        0.11092483997344971,
        0.018037764355540276,
        0.03875701501965523,
        -0.015694597736001015,
        0.11229316890239716,
        0.1041611060500145,
        -0.05873246490955353,
        -0.005572887137532234,
        -0.06408543884754181,
        0.03031954914331436,
        -0.12780728936195374,
        0.03900855407118797,
        -0.0370795801281929,
        0.036442190408706665,
        0.032008055597543716,
        -0.08403853327035904,
        0.06920938193798065,
        0.047299932688474655,
        -0.10991597175598145,
        0.12914499640464783,
        0.12482687830924988,
        0.06938041746616364,
        -0.012632973492145538,
        0.058701686561107635,
        -0.08432081341743469,
        -0.027511250227689743,
        0.06087888777256012,
        0.07170555740594864,
        0.06421273201704025,
        -0.12363103032112122,
        0.11195697635412216,
        -0.044046979397535324,
        0.11941978335380554,
        0.12776711583137512,
        0.05136985704302788,
        0.10776101797819138,
        0.0642910897731781,
        0.07787618786096573,
        -0.023070937022566795,
        0.10834115743637085,
        0.035694774240255356,
        0.08948960155248642,
        -0.03926187381148338,
        0.08194801211357117,
        0.10244660079479218,
        -0.10481476783752441,
        0.10663837194442749,
        -0.09551052004098892,
        -0.08846521377563477,
        -0.11213807016611099,
        0.046130452305078506,
        -0.09166179597377777,
        -0.04372356832027435,
        -0.06920284032821655,
        0.03111845999956131,
        -0.13349798321723938
      ],
      [
        -0.058788884431123734,
        0.007307581137865782,
        0.013336648233234882,
        -0.054657451808452606,
        0.05457226559519768,
        -0.0882730707526207,
        -0.11033546924591064,
        -0.02073134295642376,
        -0.07359842211008072,
        0.09753923118114471,
        -0.11470547318458557,
        -0.009585890918970108,
        0.05932028964161873,
        -0.12713581323623657,
        0.07814234495162964,
        -0.0593988299369812,
        -0.0352175198495388,
        -0.06991377472877502,
        -0.04175664857029915,
        -0.04855239391326904,
        -0.13795822858810425,
        0.030390864238142967,
        0.038328465074300766,
        0.13444794714450836,
        0.09530424326658249,
        0.11609190702438354,
        0.04509887099266052,
        0.06474988162517548,
        0.0991300642490387,
        0.1122712641954422,
        -0.09119374305009842,
        -0.028913766145706177,
        -0.12028175592422485,
        -0.00721340486779809,
        -0.04048967733979225,
        0.1260252296924591,
        0.047056518495082855,
        -0.012259264476597309,
        -0.09475091099739075,
        -0.11018623411655426,
        0.024712858721613884,
        -0.06758963316679001,
        -0.05665440857410431,
        0.09578254073858261,
        -0.06152624264359474,
        -0.06807272881269455,
        0.07107187062501907,
        0.04910610243678093,
        -0.07596469670534134,
        0.05447917804121971,
        0.0608677864074707,
        -0.11461539566516876,
        0.03351058438420296,
        0.050253644585609436,
        0.0033824611455202103,
        0.12268257886171341,
        -0.08853008598089218,
        0.06214817240834236,
        -0.0836106464266777
      ],
      [
        -0.10638907551765442,
        0.10189893841743469,
        -0.0408463217318058,
        0.0070910523645579815,
        0.06007673963904381,
        -0.10013029724359512,
        -0.09875649213790894,
        0.04781801626086235,
        0.11328274011611938,
        -0.0257802065461874,
        0.11143369227647781,
        0.04948721453547478,
        0.02524956688284874,
        -0.08325808495283127,
        0.148854598402977,
        0.07921100407838821,
        0.030636701732873917,
        0.08138562738895416,
        -0.13616245985031128,
        0.0014614254469051957,
        -0.04996424913406372,
        -0.02880430594086647,
        0.042337119579315186,
        0.050477541983127594,
        0.04166726395487785,
        -0.09227931499481201,
        -0.08367075026035309,
        0.0003703826223500073,
        -0.011334988288581371,
        -0.11703196167945862,
        0.12652860581874847,
        -0.004732238128781319,
        -0.09921751171350479,
        0.057511404156684875,
        0.04593638330698013,
        -0.05136911943554878,
        0.03931984305381775,
        -0.06035717949271202,
        0.062402550131082535,
        0.12117240577936172,
        0.11674897372722626,
        0.04844213277101517,
        -0.023937873542308807,
        0.02283630333840847,
        0.048928841948509216,
        0.02791716158390045,
        0.010935765691101551,
        0.028979577124118805,
        -0.07417093962430954,
        -0.1023118868470192,
        -0.08302944898605347,
        -0.10453184694051743,
        -0.10491153597831726,
        0.11650404334068298,
        0.022488579154014587,
        -0.11732397228479385,
        -0.08202756941318512,
        0.048604466021060944,
        -0.021687068045139313
      ],
      [
        -0.04657658934593201,
        -0.04899190738797188,
        -0.02197830192744732,
        0.02352217398583889,
        0.009230741299688816,
        0.08984153717756271,
        0.12631891667842865,
        0.11400266736745834,
        0.0033760687801986933,
        -0.07215260714292526,
        0.032189466059207916,
        -0.08445576578378677,
        0.04479238763451576,
        -0.03300945833325386,
        -0.04455658793449402,
        -0.07707639038562775,
        0.06992543488740921,
        0.04664235562086105,
        0.10553254187107086,
        -0.07334889471530914,
        0.054392412304878235,
        -0.011704619973897934,
        -0.08033016324043274,
        -0.09295518696308136,
        0.05668005719780922,
        -0.07629085332155228,
        0.0864189937710762,
        0.043613728135824203,
        0.03741150349378586,
        0.09460727870464325,
        0.055133964866399765,
        0.0431753434240818,
        0.0694405734539032,
        -0.06823240965604782,
        -0.0629347413778305,
        -0.02152128517627716,
        0.04339379072189331,
        0.09434720873832703,
        0.1296052634716034,
        -0.04697786271572113,
        -0.013222874142229557,
        -0.11666673421859741,
        0.07547526806592941,
        -0.08240069448947906,
        -0.0631483867764473,
        0.10596258193254471,
        0.05903914198279381,
        -0.04630037769675255,
        -0.08836672455072403,
        -0.10031964629888535,
        0.1231265589594841,
        -0.10129452496767044,
        0.09857507795095444,
        0.11855736374855042,
        0.005211412440985441,
        -0.01237823162227869,
        0.0938505008816719,
        0.06428536772727966,
        0.1355808824300766
      ],
      [
        0.09884775429964066,
        -0.09678465873003006,
        0.05988672375679016,
        0.05809072405099869,
        -0.11219526827335358,
        0.050800953060388565,
        -0.08482576906681061,
        -0.09775975346565247,
        0.0031997051555663347,
        -0.018010465428233147,
        -0.05847061797976494,
        -0.0968046560883522,
        0.07174183428287506,
        0.13350996375083923,
        -0.03320484235882759,
        -0.11761414259672165,
        -0.022481508553028107,
        -0.10788922756910324,
        -0.0961294025182724,
        -0.01604449562728405,
        0.06021154299378395,
        -0.08009260147809982,
        -0.015369243919849396,
        -0.06694535166025162,
        -0.11665832251310349,
        -0.02397063374519348,
        -0.017163541167974472,
        -0.027329131960868835,
        0.10662811994552612,
        0.053453825414180756,
        0.08083371818065643,
        0.07151558250188828,
        0.02474617213010788,
        0.08595987409353256,
        -0.059307921677827835,
        0.04617547243833542,
        0.0827413946390152,
        -0.07223299145698547,
        -0.021705489605665207,
        -0.09229625016450882,
        -0.12880176305770874,
        0.024198386818170547,
        0.029340464621782303,
        -0.031114788725972176,
        0.06037820503115654,
        -0.09046095609664917,
        -0.09447551518678665,
        0.07538000494241714,
        -0.12121035903692245,
        0.023677175864577293,
        0.08399120718240738,
        0.08538799732923508,
        0.06830944120883942,
        -0.12677091360092163,
        0.009324689395725727,
        -0.040019962936639786,
        -0.03153393790125847,
        0.09442006796598434,
        -0.054213084280490875
      ],
      [
        -0.09372790157794952,
        -0.11243248730897903,
        0.08560633659362793,
        -0.006924709305167198,
        0.10474715381860733,
        0.005757551174610853,
        -0.1484108865261078,
        0.01745843142271042,
        0.13940469920635223,
        0.08658482134342194,
        0.007359019014984369,
        -0.11460275948047638,
        -0.09103729575872421,
        0.08624397218227386,
        -0.08561260253190994,
        -0.005508181639015675,
        -0.034086164087057114,
        0.046623729169368744,
        0.0036187181249260902,
        -0.06982769817113876,
        -0.054170381277799606,
        0.13243038952350616,
        0.015112902969121933,
        0.06680776178836823,
        -0.06452497094869614,
        0.096975177526474,
        -0.013416930101811886,
        -0.05295455828309059,
        0.045406095683574677,
        -0.04813111200928688,
        -0.04021058604121208,
        -0.0018618557369336486,
        -0.008636736311018467,
        -0.06724143773317337,
        0.055575545877218246,
        -0.1322651505470276,
        0.09424884617328644,
        0.10807842016220093,
        -0.0018830772023648024,
        -0.03277134150266647,
        -0.13927586376667023,
        0.07441879063844681,
        0.09806826710700989,
        0.11844886839389801,
        0.02042907103896141,
        0.03800719976425171,
        0.09733753651380539,
        -0.001787089742720127,
        -0.05894840881228447,
        -0.11616446822881699,
        0.03801394999027252,
        0.052421342581510544,
        0.13666416704654694,
        -0.0668267086148262,
        0.052978985011577606,
        -0.03426223248243332,
        -0.013625973835587502,
        0.07257741689682007,
        -0.1333511918783188
      ],
      [
        0.09430878609418869,
        0.05173004791140556,
        -0.09842716157436371,
        0.07437486946582794,
        -0.0343521311879158,
        0.00081348029198125,
        -0.06493651121854782,
        -0.1474265605211258,
        -0.006724898237735033,
        0.07953963428735733,
        -0.054938655346632004,
        -0.07147664576768875,
        0.0183457899838686,
        0.02077323943376541,
        -0.03892696276307106,
        -0.13191376626491547,
        -0.07467031478881836,
        0.0015984055353328586,
        0.0759371966123581,
        0.1440514475107193,
        -0.012687448412179947,
        0.06494918465614319,
        0.0821092277765274,
        -0.05249922722578049,
        -0.025189049541950226,
        0.08991586416959763,
        0.09213173389434814,
        0.03793181851506233,
        -0.11348513513803482,
        0.07679025083780289,
        -0.10521499067544937,
        0.07803691923618317,
        0.015914734452962875,
        0.05467543751001358,
        -0.13209137320518494,
        -0.04353071749210358,
        0.08208443969488144,
        0.08941088616847992,
        -0.05457838252186775,
        0.1294824481010437,
        -0.029165929183363914,
        -0.056807491928339005,
        -0.04527896270155907,
        0.0006725150160491467,
        -0.021424302831292152,
        0.07945985347032547,
        -0.10559114068746567,
        -0.04524941369891167,
        -0.12291135638952255,
        0.1258624792098999,
        -0.06318776309490204,
        -0.11648300290107727,
        0.012084951624274254,
        -0.006261798087507486,
        0.03578070551156998,
        -0.013447730801999569,
        0.08120415359735489,
        -0.05810247361660004,
        -0.05515843629837036
      ],
      [
        -0.01841791532933712,
        0.021700745448470116,
        0.1016552671790123,
        -0.008182971738278866,
        0.09431090205907822,
        0.10266678780317307,
        -0.06521070003509521,
        -0.014547578990459442,
        -0.025896534323692322,
        0.06137414276599884,
        -0.06745456159114838,
        0.03922664001584053,
        0.015451858751475811,
        -0.09277952462434769,
        -0.05988844111561775,
        -0.14116640388965607,
        -0.08656583726406097,
        0.031632788479328156,
        0.02114822529256344,
        0.1144646406173706,
        -0.11805669218301773,
        0.01829567737877369,
        -0.13707473874092102,
        -0.004211528226733208,
        0.029738295823335648,
        -0.10476396977901459,
        0.09578200429677963,
        -0.032463982701301575,
        0.1272498220205307,
        -0.030207565054297447,
        0.06467833369970322,
        0.11202313005924225,
        -0.040986597537994385,
        -0.013681813143193722,
        0.07326478511095047,
        -0.11244678497314453,
        0.06210849806666374,
        -0.07039422541856766,
        0.1149677112698555,
        -0.07014366239309311,
        -0.04981787130236626,
        0.11606000363826752,
        -0.04644366726279259,
        0.11253058165311813,
        0.10327951610088348,
        0.14157265424728394,
        -0.11901719123125076,
        -0.004387551918625832,
        -0.045343369245529175,
        0.012424509041011333,
        -0.09690592437982559,
        0.030657639726996422,
        -0.018954919651150703,
        -0.089266836643219,
        -0.12072259187698364,
        0.07733817398548126,
        -0.05476944521069527,
        0.10697630047798157,
        0.010997970588505268
      ],
      [
        0.02554071694612503,
        -0.03704441711306572,
        -0.020060086622834206,
        -0.05960981920361519,
        -0.13414359092712402,
        0.06820887327194214,
        -0.08245847374200821,
        0.05761080980300903,
        -0.05286930873990059,
        0.07840217649936676,
        0.10660917311906815,
        -0.09170942008495331,
        0.09411559253931046,
        0.018896890804171562,
        -0.11433974653482437,
        0.03687060996890068,
        0.06783446669578552,
        0.12290683388710022,
        -0.1409205049276352,
        0.14660300314426422,
        0.09074244648218155,
        0.14662671089172363,
        0.07693065702915192,
        -0.05929284542798996,
        0.11394338309764862,
        0.10947416722774506,
        -0.04785528779029846,
        -0.027455851435661316,
        0.11084070801734924,
        0.11091847717761993,
        0.09109430015087128,
        0.1068946048617363,
        -0.07314331829547882,
        -0.009141885675489902,
        -0.03309647738933563,
        0.04639214277267456,
        0.026415808126330376,
        -0.11154705286026001,
        -0.017308680340647697,
        -0.10297688096761703,
        -0.14487749338150024,
        0.12281866371631622,
        -0.06655523180961609,
        0.06324177980422974,
        -0.025272130966186523,
        -0.020682163536548615,
        0.0031975419260561466,
        0.08524772524833679,
        -0.01642046496272087,
        0.10214660316705704,
        0.07556500285863876,
        0.08267846703529358,
        -0.10378628224134445,
        -0.05256135016679764,
        -0.1204443871974945,
        -0.01302621141076088,
        -0.018472429364919662,
        0.027993425726890564,
        0.10626343637704849
      ],
      [
        0.0684131309390068,
        -0.08075220882892609,
        -0.07915344834327698,
        0.09842053055763245,
        0.022888079285621643,
        0.043688755482435226,
        -0.05305412411689758,
        0.0025431113317608833,
        0.031410377472639084,
        -0.09310407936573029,
        0.11078400909900665,
        0.06569308787584305,
        -0.08450490236282349,
        -0.07646465301513672,
        -0.04046645388007164,
        0.03554263710975647,
        -0.0629192590713501,
        0.09445663541555405,
        -0.13894492387771606,
        -0.06474602222442627,
        -0.08318951725959778,
        0.05329665541648865,
        0.0009393874788656831,
        -0.03466686233878136,
        0.09274214506149292,
        -0.11885368078947067,
        0.06177471578121185,
        -0.07968949526548386,
        -0.009233363904058933,
        -0.1414330154657364,
        -0.09062042832374573,
        -0.10393276810646057,
        0.048044413328170776,
        -0.027636967599391937,
        0.07669895142316818,
        -0.07215922325849533,
        -0.02554299309849739,
